\data\
ngram 1=6
ngram 2=7
ngram 3=6

\1-grams:
-1	<unk>	0
0	<s>	-0.30103
-0.6146491	a	-0.30103
-0.6146491	</s>	0
-0.7659168	c	-0.30103
-0.6146491	b	-0.30103

\2-grams:
-0.4301247	<s> a	-0.30103
-0.4301247	a a	-0.30103
-0.20660876	c </s>	0
-0.5404639	b </s>	0
-0.4740302	<s> c	-0.30103
-0.4301247	a b	-0.30103
-0.3422159	b b	-0.47712123

\3-grams:
-0.1638568	<s> a a
-0.09113217	<s> c </s>
-0.7462621	b b </s>
-0.1638568	a a b
-0.13823806	a b b
-0.13375957	b b b

\end\
